digraph Tree {
node [shape=box] ;
0 [label="X[1] <= 0.5\nentropy = 0.966\nsamples = 623\nvalue = [379, 244]"] ;
1 [label="X[2] <= 13.0\nentropy = 0.716\nsamples = 401\nvalue = [322, 79]"] ;
0 -> 1 [labeldistance=2.5, labelangle=45, headlabel="True"] ;
2 [label="X[3] <= 26.95\nentropy = 0.918\nsamples = 24\nvalue = [8, 16]"] ;
1 -> 2 ;
3 [label="entropy = 0.0\nsamples = 12\nvalue = [0, 12]"] ;
2 -> 3 ;
4 [label="X[0] <= 2.5\nentropy = 0.918\nsamples = 12\nvalue = [8, 4]"] ;
2 -> 4 ;
5 [label="entropy = 0.0\nsamples = 4\nvalue = [0, 4]"] ;
4 -> 5 ;
6 [label="entropy = 0.0\nsamples = 8\nvalue = [8, 0]"] ;
4 -> 6 ;
7 [label="X[0] <= 1.5\nentropy = 0.651\nsamples = 377\nvalue = [314, 63]"] ;
1 -> 7 ;
8 [label="X[3] <= 26.144\nentropy = 0.941\nsamples = 81\nvalue = [52, 29]"] ;
7 -> 8 ;
9 [label="entropy = 0.0\nsamples = 6\nvalue = [6, 0]"] ;
8 -> 9 ;
10 [label="X[3] <= 30.598\nentropy = 0.963\nsamples = 75\nvalue = [46, 29]"] ;
8 -> 10 ;
11 [label="X[2] <= 53.5\nentropy = 0.971\nsamples = 25\nvalue = [10, 15]"] ;
10 -> 11 ;
12 [label="X[3] <= 27.135\nentropy = 0.831\nsamples = 19\nvalue = [5, 14]"] ;
11 -> 12 ;
13 [label="X[2] <= 31.5\nentropy = 0.469\nsamples = 10\nvalue = [1, 9]"] ;
12 -> 13 ;
14 [label="entropy = 0.918\nsamples = 3\nvalue = [1, 2]"] ;
13 -> 14 ;
15 [label="entropy = 0.0\nsamples = 7\nvalue = [0, 7]"] ;
13 -> 15 ;
16 [label="X[3] <= 29.1\nentropy = 0.991\nsamples = 9\nvalue = [4, 5]"] ;
12 -> 16 ;
17 [label="entropy = 0.0\nsamples = 3\nvalue = [3, 0]"] ;
16 -> 17 ;
18 [label="entropy = 0.65\nsamples = 6\nvalue = [1, 5]"] ;
16 -> 18 ;
19 [label="X[2] <= 72.5\nentropy = 0.65\nsamples = 6\nvalue = [5, 1]"] ;
11 -> 19 ;
20 [label="entropy = 0.0\nsamples = 5\nvalue = [5, 0]"] ;
19 -> 20 ;
21 [label="entropy = 0.0\nsamples = 1\nvalue = [0, 1]"] ;
19 -> 21 ;
22 [label="X[3] <= 387.665\nentropy = 0.855\nsamples = 50\nvalue = [36, 14]"] ;
10 -> 22 ;
23 [label="X[3] <= 136.731\nentropy = 0.811\nsamples = 48\nvalue = [36, 12]"] ;
22 -> 23 ;
24 [label="X[2] <= 27.5\nentropy = 0.863\nsamples = 42\nvalue = [30, 12]"] ;
23 -> 24 ;
25 [label="entropy = 0.918\nsamples = 6\nvalue = [2, 4]"] ;
24 -> 25 ;
26 [label="entropy = 0.764\nsamples = 36\nvalue = [28, 8]"] ;
24 -> 26 ;
27 [label="entropy = 0.0\nsamples = 6\nvalue = [6, 0]"] ;
23 -> 27 ;
28 [label="entropy = 0.0\nsamples = 2\nvalue = [0, 2]"] ;
22 -> 28 ;
29 [label="X[3] <= 7.133\nentropy = 0.514\nsamples = 296\nvalue = [262, 34]"] ;
7 -> 29 ;
30 [label="X[2] <= 26.5\nentropy = 0.222\nsamples = 28\nvalue = [27, 1]"] ;
29 -> 30 ;
31 [label="X[3] <= 2.006\nentropy = 0.544\nsamples = 8\nvalue = [7, 1]"] ;
30 -> 31 ;
32 [label="X[2] <= 22.0\nentropy = 1.0\nsamples = 2\nvalue = [1, 1]"] ;
31 -> 32 ;
33 [label="entropy = 0.0\nsamples = 1\nvalue = [1, 0]"] ;
32 -> 33 ;
34 [label="entropy = 0.0\nsamples = 1\nvalue = [0, 1]"] ;
32 -> 34 ;
35 [label="entropy = 0.0\nsamples = 6\nvalue = [6, 0]"] ;
31 -> 35 ;
36 [label="entropy = 0.0\nsamples = 20\nvalue = [20, 0]"] ;
30 -> 36 ;
37 [label="X[3] <= 7.183\nentropy = 0.538\nsamples = 268\nvalue = [235, 33]"] ;
29 -> 37 ;
38 [label="entropy = 0.0\nsamples = 1\nvalue = [0, 1]"] ;
37 -> 38 ;
39 [label="X[3] <= 63.023\nentropy = 0.529\nsamples = 267\nvalue = [235, 32]"] ;
37 -> 39 ;
40 [label="X[3] <= 49.038\nentropy = 0.541\nsamples = 258\nvalue = [226, 32]"] ;
39 -> 40 ;
41 [label="X[3] <= 23.625\nentropy = 0.514\nsamples = 253\nvalue = [224, 29]"] ;
40 -> 41 ;
42 [label="entropy = 0.548\nsamples = 229\nvalue = [200, 29]"] ;
41 -> 42 ;
43 [label="entropy = 0.0\nsamples = 24\nvalue = [24, 0]"] ;
41 -> 43 ;
44 [label="X[2] <= 30.0\nentropy = 0.971\nsamples = 5\nvalue = [2, 3]"] ;
40 -> 44 ;
45 [label="entropy = 1.0\nsamples = 4\nvalue = [2, 2]"] ;
44 -> 45 ;
46 [label="entropy = 0.0\nsamples = 1\nvalue = [0, 1]"] ;
44 -> 46 ;
47 [label="entropy = 0.0\nsamples = 9\nvalue = [9, 0]"] ;
39 -> 47 ;
48 [label="X[0] <= 2.5\nentropy = 0.822\nsamples = 222\nvalue = [57, 165]"] ;
0 -> 48 [labeldistance=2.5, labelangle=-45, headlabel="False"] ;
49 [label="X[3] <= 26.125\nentropy = 0.29\nsamples = 118\nvalue = [6, 112]"] ;
48 -> 49 ;
50 [label="X[2] <= 56.0\nentropy = 0.535\nsamples = 41\nvalue = [5, 36]"] ;
49 -> 50 ;
51 [label="X[2] <= 37.0\nentropy = 0.469\nsamples = 40\nvalue = [4, 36]"] ;
50 -> 51 ;
52 [label="X[2] <= 26.5\nentropy = 0.337\nsamples = 32\nvalue = [2, 30]"] ;
51 -> 52 ;
53 [label="X[2] <= 23.5\nentropy = 0.65\nsamples = 12\nvalue = [2, 10]"] ;
52 -> 53 ;
54 [label="entropy = 0.0\nsamples = 8\nvalue = [0, 8]"] ;
53 -> 54 ;
55 [label="X[2] <= 25.0\nentropy = 1.0\nsamples = 4\nvalue = [2, 2]"] ;
53 -> 55 ;
56 [label="entropy = 0.918\nsamples = 3\nvalue = [1, 2]"] ;
55 -> 56 ;
57 [label="entropy = 0.0\nsamples = 1\nvalue = [1, 0]"] ;
55 -> 57 ;
58 [label="entropy = 0.0\nsamples = 20\nvalue = [0, 20]"] ;
52 -> 58 ;
59 [label="X[2] <= 44.5\nentropy = 0.811\nsamples = 8\nvalue = [2, 6]"] ;
51 -> 59 ;
60 [label="X[2] <= 40.0\nentropy = 0.918\nsamples = 3\nvalue = [2, 1]"] ;
59 -> 60 ;
61 [label="entropy = 0.0\nsamples = 1\nvalue = [1, 0]"] ;
60 -> 61 ;
62 [label="X[2] <= 43.0\nentropy = 1.0\nsamples = 2\nvalue = [1, 1]"] ;
60 -> 62 ;
63 [label="entropy = 0.0\nsamples = 1\nvalue = [0, 1]"] ;
62 -> 63 ;
64 [label="entropy = 0.0\nsamples = 1\nvalue = [1, 0]"] ;
62 -> 64 ;
65 [label="entropy = 0.0\nsamples = 5\nvalue = [0, 5]"] ;
59 -> 65 ;
66 [label="entropy = 0.0\nsamples = 1\nvalue = [1, 0]"] ;
50 -> 66 ;
67 [label="X[2] <= 3.0\nentropy = 0.1\nsamples = 77\nvalue = [1, 76]"] ;
49 -> 67 ;
68 [label="entropy = 0.0\nsamples = 1\nvalue = [1, 0]"] ;
67 -> 68 ;
69 [label="entropy = 0.0\nsamples = 76\nvalue = [0, 76]"] ;
67 -> 69 ;
70 [label="X[3] <= 24.808\nentropy = 1.0\nsamples = 104\nvalue = [51, 53]"] ;
48 -> 70 ;
71 [label="X[2] <= 36.5\nentropy = 0.982\nsamples = 88\nvalue = [37, 51]"] ;
70 -> 71 ;
72 [label="X[3] <= 8.04\nentropy = 0.967\nsamples = 84\nvalue = [33, 51]"] ;
71 -> 72 ;
73 [label="X[2] <= 29.5\nentropy = 0.842\nsamples = 37\nvalue = [10, 27]"] ;
72 -> 73 ;
74 [label="X[3] <= 6.987\nentropy = 0.811\nsamples = 36\nvalue = [9, 27]"] ;
73 -> 74 ;
75 [label="entropy = 0.0\nsamples = 1\nvalue = [1, 0]"] ;
74 -> 75 ;
76 [label="X[3] <= 7.523\nentropy = 0.776\nsamples = 35\nvalue = [8, 27]"] ;
74 -> 76 ;
77 [label="entropy = 0.0\nsamples = 4\nvalue = [0, 4]"] ;
76 -> 77 ;
78 [label="entropy = 0.824\nsamples = 31\nvalue = [8, 23]"] ;
76 -> 78 ;
79 [label="entropy = 0.0\nsamples = 1\nvalue = [1, 0]"] ;
73 -> 79 ;
80 [label="X[3] <= 10.825\nentropy = 1.0\nsamples = 47\nvalue = [23, 24]"] ;
72 -> 80 ;
81 [label="X[2] <= 30.5\nentropy = 0.592\nsamples = 14\nvalue = [12, 2]"] ;
80 -> 81 ;
82 [label="X[2] <= 19.0\nentropy = 0.391\nsamples = 13\nvalue = [12, 1]"] ;
81 -> 82 ;
83 [label="entropy = 1.0\nsamples = 2\nvalue = [1, 1]"] ;
82 -> 83 ;
84 [label="entropy = 0.0\nsamples = 11\nvalue = [11, 0]"] ;
82 -> 84 ;
85 [label="entropy = 0.0\nsamples = 1\nvalue = [0, 1]"] ;
81 -> 85 ;
86 [label="X[3] <= 13.908\nentropy = 0.918\nsamples = 33\nvalue = [11, 22]"] ;
80 -> 86 ;
87 [label="entropy = 0.0\nsamples = 5\nvalue = [0, 5]"] ;
86 -> 87 ;
88 [label="X[3] <= 14.852\nentropy = 0.967\nsamples = 28\nvalue = [11, 17]"] ;
86 -> 88 ;
89 [label="entropy = 0.722\nsamples = 5\nvalue = [4, 1]"] ;
88 -> 89 ;
90 [label="entropy = 0.887\nsamples = 23\nvalue = [7, 16]"] ;
88 -> 90 ;
91 [label="entropy = 0.0\nsamples = 4\nvalue = [4, 0]"] ;
71 -> 91 ;
92 [label="X[2] <= 7.0\nentropy = 0.544\nsamples = 16\nvalue = [14, 2]"] ;
70 -> 92 ;
93 [label="entropy = 0.0\nsamples = 1\nvalue = [0, 1]"] ;
92 -> 93 ;
94 [label="X[2] <= 33.0\nentropy = 0.353\nsamples = 15\nvalue = [14, 1]"] ;
92 -> 94 ;
95 [label="entropy = 0.0\nsamples = 10\nvalue = [10, 0]"] ;
94 -> 95 ;
96 [label="X[2] <= 38.5\nentropy = 0.722\nsamples = 5\nvalue = [4, 1]"] ;
94 -> 96 ;
97 [label="entropy = 0.0\nsamples = 1\nvalue = [0, 1]"] ;
96 -> 97 ;
98 [label="entropy = 0.0\nsamples = 4\nvalue = [4, 0]"] ;
96 -> 98 ;
}
